#pragma once
#include <cstdarg>
namespace Eloquent {
    namespace ML {
        namespace Port {
            class DecisionTree {
                public:
                    /**
                    * Modello addestrato usando dati da tutti i soggetti + embedded test (classe2=frog)
                    */
                    int predict(float *x) {
                        if (x[17] <= 4.360803127288818) {
                            if (x[0] <= 0.7058824896812439) {
                                if (x[8] <= 9.176472187042236) {
                                    if (x[18] <= 3.921568512916565) {
                                        if (x[15] <= 0.275421679019928) {
                                            if (x[18] <= 1.5007190704345703) {
                                                return 3;
                                            }

                                            else {
                                                return 3;
                                            }
                                        }

                                        else {
                                            return 3;
                                        }
                                    }

                                    else {
                                        if (x[19] <= 4.139490962028503) {
                                            return 3;
                                        }

                                        else {
                                            return 3;
                                        }
                                    }
                                }

                                else {
                                    if (x[16] <= 3.921567440032959) {
                                        if (x[8] <= 43.764699935913086) {
                                            if (x[12] <= 2.410033106803894) {
                                                if (x[13] <= 1.6816028356552124) {
                                                    if (x[10] <= 2.010183274745941) {
                                                        return 3;
                                                    }

                                                    else {
                                                        if (x[13] <= 0.4905054569244385) {
                                                            return 2;
                                                        }

                                                        else {
                                                            if (x[11] <= 0.7340932935476303) {
                                                                return 2;
                                                            }

                                                            else {
                                                                return 2;
                                                            }
                                                        }
                                                    }
                                                }

                                                else {
                                                    return 3;
                                                }
                                            }

                                            else {
                                                return 3;
                                            }
                                        }

                                        else {
                                            if (x[15] <= 0.14040875434875488) {
                                                if (x[8] <= 56.47058296203613) {
                                                    if (x[23] <= 3.8462166786193848) {
                                                        return 3;
                                                    }

                                                    else {
                                                        return 3;
                                                    }
                                                }

                                                else {
                                                    return 3;
                                                }
                                            }

                                            else {
                                                if (x[15] <= 1.370809257030487) {
                                                    if (x[14] <= 1.5821183323860168) {
                                                        if (x[8] <= 56.47058296203613) {
                                                            if (x[11] <= 2.4199812412261963) {
                                                                return 3;
                                                            }

                                                            else {
                                                                return 1;
                                                            }
                                                        }

                                                        else {
                                                            if (x[14] <= 1.2461415529251099) {
                                                                return 3;
                                                            }

                                                            else {
                                                                return 3;
                                                            }
                                                        }
                                                    }

                                                    else {
                                                        return 3;
                                                    }
                                                }

                                                else {
                                                    if (x[8] <= 65.64705657958984) {
                                                        if (x[15] <= 1.5309762358665466) {
                                                            if (x[13] <= 1.5548401474952698) {
                                                                return 3;
                                                            }

                                                            else {
                                                                return 3;
                                                            }
                                                        }

                                                        else {
                                                            return 3;
                                                        }
                                                    }

                                                    else {
                                                        return 3;
                                                    }
                                                }
                                            }
                                        }
                                    }

                                    else {
                                        if (x[17] <= 3.921568512916565) {
                                            if (x[15] <= 0.8462907671928406) {
                                                if (x[17] <= 3.6282933950424194) {
                                                    return 1;
                                                }

                                                else {
                                                    return 1;
                                                }
                                            }

                                            else {
                                                if (x[12] <= 1.4117645025253296) {
                                                    return 1;
                                                }

                                                else {
                                                    return 3;
                                                }
                                            }
                                        }

                                        else {
                                            if (x[8] <= 56.47058296203613) {
                                                return 3;
                                            }

                                            else {
                                                return 3;
                                            }
                                        }
                                    }
                                }
                            }

                            else {
                                if (x[11] <= 0.15487437695264816) {
                                    if (x[0] <= 117.88234329223633) {
                                        if (x[1] <= 1.2567251920700073) {
                                            if (x[8] <= 11.294119834899902) {
                                                if (x[19] <= 11.42828893661499) {
                                                    if (x[20] <= 3.921568512916565) {
                                                        if (x[20] <= 1.9607839584350586) {
                                                            return 3;
                                                        }

                                                        else {
                                                            return 3;
                                                        }
                                                    }

                                                    else {
                                                        return 3;
                                                    }
                                                }

                                                else {
                                                    return 1;
                                                }
                                            }

                                            else {
                                                if (x[8] <= 33.882351875305176) {
                                                    if (x[0] <= 33.882351875305176) {
                                                        return 3;
                                                    }

                                                    else {
                                                        return 2;
                                                    }
                                                }

                                                else {
                                                    if (x[0] <= 90.35293579101562) {
                                                        if (x[8] <= 56.47058296203613) {
                                                            if (x[0] <= 28.2352933883667) {
                                                                return 3;
                                                            }

                                                            else {
                                                                return 3;
                                                            }
                                                        }

                                                        else {
                                                            if (x[8] <= 72.70587539672852) {
                                                                return 3;
                                                            }

                                                            else {
                                                                return 3;
                                                            }
                                                        }
                                                    }

                                                    else {
                                                        return 2;
                                                    }
                                                }
                                            }
                                        }

                                        else {
                                            if (x[5] <= 1.7270638942718506) {
                                                if (x[2] <= 3.8195701837539673) {
                                                    if (x[8] <= 56.470590591430664) {
                                                        if (x[18] <= 3.921568512916565) {
                                                            if (x[8] <= 33.882351875305176) {
                                                                return 3;
                                                            }

                                                            else {
                                                                return 1;
                                                            }
                                                        }

                                                        else {
                                                            if (x[7] <= 0.41583043336868286) {
                                                                return 3;
                                                            }

                                                            else {
                                                                return 3;
                                                            }
                                                        }
                                                    }

                                                    else {
                                                        if (x[19] <= 3.921568512916565) {
                                                            if (x[7] <= 0.5508431792259216) {
                                                                return 3;
                                                            }

                                                            else {
                                                                return 3;
                                                            }
                                                        }

                                                        else {
                                                            if (x[20] <= 4.733752131462097) {
                                                                return 2;
                                                            }

                                                            else {
                                                                return 2;
                                                            }
                                                        }
                                                    }
                                                }

                                                else {
                                                    if (x[23] <= 9.294812202453613) {
                                                        return 3;
                                                    }

                                                    else {
                                                        return 1;
                                                    }
                                                }
                                            }

                                            else {
                                                if (x[0] <= 38.11764907836914) {
                                                    return 3;
                                                }

                                                else {
                                                    if (x[8] <= 22.588232040405273) {
                                                        if (x[3] <= 4.344215154647827) {
                                                            if (x[1] <= 3.408300995826721) {
                                                                return 3;
                                                            }

                                                            else {
                                                                return 3;
                                                            }
                                                        }

                                                        else {
                                                            return 3;
                                                        }
                                                    }

                                                    else {
                                                        return 3;
                                                    }
                                                }
                                            }
                                        }
                                    }

                                    else {
                                        return 2;
                                    }
                                }

                                else {
                                    if (x[8] <= 134.8235321044922) {
                                        if (x[22] <= 6.858364582061768) {
                                            if (x[0] <= 16.235294342041016) {
                                                if (x[4] <= 2.410033106803894) {
                                                    if (x[8] <= 48.70587921142578) {
                                                        if (x[15] <= 5.132776498794556) {
                                                            if (x[8] <= 7.764702796936035) {
                                                                return 1;
                                                            }

                                                            else {
                                                                return 3;
                                                            }
                                                        }

                                                        else {
                                                            return 1;
                                                        }
                                                    }

                                                    else {
                                                        if (x[3] <= 3.0673903226852417) {
                                                            return 1;
                                                        }

                                                        else {
                                                            return 3;
                                                        }
                                                    }
                                                }

                                                else {
                                                    if (x[8] <= 48.705875396728516) {
                                                        if (x[17] <= 1.9607839584350586) {
                                                            if (x[8] <= 7.058822870254517) {
                                                                return 1;
                                                            }

                                                            else {
                                                                return 3;
                                                            }
                                                        }

                                                        else {
                                                            return 1;
                                                        }
                                                    }

                                                    else {
                                                        return 3;
                                                    }
                                                }
                                            }

                                            else {
                                                if (x[13] <= 1.8154393434524536) {
                                                    if (x[4] <= 3.5749377012252808) {
                                                        if (x[15] <= 1.6451166272163391) {
                                                            if (x[8] <= 47.294118881225586) {
                                                                return 2;
                                                            }

                                                            else {
                                                                return 3;
                                                            }
                                                        }

                                                        else {
                                                            if (x[8] <= 81.17646408081055) {
                                                                return 3;
                                                            }

                                                            else {
                                                                return 2;
                                                            }
                                                        }
                                                    }

                                                    else {
                                                        if (x[0] <= 75.52940368652344) {
                                                            return 3;
                                                        }

                                                        else {
                                                            return 2;
                                                        }
                                                    }
                                                }

                                                else {
                                                    if (x[8] <= 94.58823013305664) {
                                                        if (x[7] <= 0.6806677281856537) {
                                                            return 3;
                                                        }

                                                        else {
                                                            if (x[7] <= 1.7778074741363525) {
                                                                return 1;
                                                            }

                                                            else {
                                                                return 3;
                                                            }
                                                        }
                                                    }

                                                    else {
                                                        return 2;
                                                    }
                                                }
                                            }
                                        }

                                        else {
                                            if (x[9] <= 9.612422943115234) {
                                                if (x[18] <= 9.450494289398193) {
                                                    if (x[22] <= 10.825172424316406) {
                                                        if (x[5] <= 0.7659271359443665) {
                                                            return 2;
                                                        }

                                                        else {
                                                            return 3;
                                                        }
                                                    }

                                                    else {
                                                        return 2;
                                                    }
                                                }

                                                else {
                                                    if (x[16] <= 50.98039627075195) {
                                                        if (x[15] <= 0.7494344711303711) {
                                                            if (x[10] <= 2.0101823210716248) {
                                                                return 2;
                                                            }

                                                            else {
                                                                return 1;
                                                            }
                                                        }

                                                        else {
                                                            return 2;
                                                        }
                                                    }

                                                    else {
                                                        if (x[5] <= 3.1537580490112305) {
                                                            return 1;
                                                        }

                                                        else {
                                                            return 2;
                                                        }
                                                    }
                                                }
                                            }

                                            else {
                                                if (x[20] <= 6.694536447525024) {
                                                    return 2;
                                                }

                                                else {
                                                    return 2;
                                                }
                                            }
                                        }
                                    }

                                    else {
                                        if (x[0] <= 253.4117660522461) {
                                            if (x[0] <= 26.82353115081787) {
                                                if (x[7] <= 1.370809257030487) {
                                                    return 1;
                                                }

                                                else {
                                                    return 0;
                                                }
                                            }

                                            else {
                                                if (x[8] <= 278.8235321044922) {
                                                    if (x[21] <= 35.13437843322754) {
                                                        return 2;
                                                    }

                                                    else {
                                                        return 1;
                                                    }
                                                }

                                                else {
                                                    if (x[19] <= 14.382859230041504) {
                                                        return 1;
                                                    }

                                                    else {
                                                        return 0;
                                                    }
                                                }
                                            }
                                        }

                                        else {
                                            return 0;
                                        }
                                    }
                                }
                            }
                        }

                        else {
                            if (x[0] <= 237.17647552490234) {
                                if (x[9] <= 14.813213348388672) {
                                    if (x[16] <= 360.78431701660156) {
                                        if (x[1] <= 14.4729323387146) {
                                            if (x[17] <= 45.172061920166016) {
                                                if (x[22] <= 8.096275329589844) {
                                                    if (x[0] <= 57.17647361755371) {
                                                        if (x[18] <= 19.33683681488037) {
                                                            if (x[8] <= 67.76470947265625) {
                                                                return 3;
                                                            }

                                                            else {
                                                                return 2;
                                                            }
                                                        }

                                                        else {
                                                            if (x[16] <= 74.50979995727539) {
                                                                return 2;
                                                            }

                                                            else {
                                                                return 1;
                                                            }
                                                        }
                                                    }

                                                    else {
                                                        if (x[16] <= 41.176475524902344) {
                                                            if (x[0] <= 94.5882339477539) {
                                                                return 2;
                                                            }

                                                            else {
                                                                return 2;
                                                            }
                                                        }

                                                        else {
                                                            if (x[2] <= 1.4117645025253296) {
                                                                return 1;
                                                            }

                                                            else {
                                                                return 2;
                                                            }
                                                        }
                                                    }
                                                }

                                                else {
                                                    if (x[16] <= 68.62744903564453) {
                                                        if (x[1] <= 1.8663939833641052) {
                                                            if (x[8] <= 4.235293865203857) {
                                                                return 3;
                                                            }

                                                            else {
                                                                return 1;
                                                            }
                                                        }

                                                        else {
                                                            if (x[18] <= 33.80267143249512) {
                                                                return 2;
                                                            }

                                                            else {
                                                                return 2;
                                                            }
                                                        }
                                                    }

                                                    else {
                                                        if (x[1] <= 9.634082317352295) {
                                                            if (x[16] <= 121.56862258911133) {
                                                                return 1;
                                                            }

                                                            else {
                                                                return 1;
                                                            }
                                                        }

                                                        else {
                                                            if (x[8] <= 116.47057723999023) {
                                                                return 1;
                                                            }

                                                            else {
                                                                return 0;
                                                            }
                                                        }
                                                    }
                                                }
                                            }

                                            else {
                                                if (x[9] <= 7.50728964805603) {
                                                    if (x[17] <= 158.0075454711914) {
                                                        if (x[6] <= 1.5601810812950134) {
                                                            if (x[7] <= 0.317222535610199) {
                                                                return 1;
                                                            }

                                                            else {
                                                                return 1;
                                                            }
                                                        }

                                                        else {
                                                            if (x[10] <= 8.407862663269043) {
                                                                return 1;
                                                            }

                                                            else {
                                                                return 2;
                                                            }
                                                        }
                                                    }

                                                    else {
                                                        if (x[10] <= 10.842984199523926) {
                                                            if (x[8] <= 5.647058963775635) {
                                                                return 1;
                                                            }

                                                            else {
                                                                return 1;
                                                            }
                                                        }

                                                        else {
                                                            if (x[17] <= 220.8671112060547) {
                                                                return 2;
                                                            }

                                                            else {
                                                                return 1;
                                                            }
                                                        }
                                                    }
                                                }

                                                else {
                                                    if (x[2] <= 3.7666103839874268) {
                                                        if (x[1] <= 7.288789510726929) {
                                                            if (x[17] <= 74.97088241577148) {
                                                                return 1;
                                                            }

                                                            else {
                                                                return 1;
                                                            }
                                                        }

                                                        else {
                                                            if (x[18] <= 133.18643951416016) {
                                                                return 2;
                                                            }

                                                            else {
                                                                return 1;
                                                            }
                                                        }
                                                    }

                                                    else {
                                                        if (x[17] <= 171.72466278076172) {
                                                            if (x[0] <= 70.58823013305664) {
                                                                return 2;
                                                            }

                                                            else {
                                                                return 2;
                                                            }
                                                        }

                                                        else {
                                                            if (x[17] <= 335.55072021484375) {
                                                                return 1;
                                                            }

                                                            else {
                                                                return 1;
                                                            }
                                                        }
                                                    }
                                                }
                                            }
                                        }

                                        else {
                                            if (x[17] <= 285.8847351074219) {
                                                if (x[8] <= 242.82352447509766) {
                                                    if (x[9] <= 6.016984224319458) {
                                                        if (x[1] <= 20.454089164733887) {
                                                            if (x[17] <= 63.10263442993164) {
                                                                return 2;
                                                            }

                                                            else {
                                                                return 1;
                                                            }
                                                        }

                                                        else {
                                                            if (x[8] <= 45.17647361755371) {
                                                                return 2;
                                                            }

                                                            else {
                                                                return 2;
                                                            }
                                                        }
                                                    }

                                                    else {
                                                        if (x[8] <= 36.705888748168945) {
                                                            if (x[0] <= 52.23529243469238) {
                                                                return 2;
                                                            }

                                                            else {
                                                                return 2;
                                                            }
                                                        }

                                                        else {
                                                            if (x[20] <= 75.94057846069336) {
                                                                return 2;
                                                            }

                                                            else {
                                                                return 2;
                                                            }
                                                        }
                                                    }
                                                }

                                                else {
                                                    if (x[8] <= 319.05882263183594) {
                                                        if (x[1] <= 33.02210998535156) {
                                                            if (x[9] <= 9.525066375732422) {
                                                                return 2;
                                                            }

                                                            else {
                                                                return 0;
                                                            }
                                                        }

                                                        else {
                                                            return 2;
                                                        }
                                                    }

                                                    else {
                                                        return 0;
                                                    }
                                                }
                                            }

                                            else {
                                                if (x[1] <= 24.208484649658203) {
                                                    if (x[10] <= 9.245145320892334) {
                                                        if (x[14] <= 2.4306797981262207) {
                                                            return 1;
                                                        }

                                                        else {
                                                            if (x[8] <= 77.64706039428711) {
                                                                return 1;
                                                            }

                                                            else {
                                                                return 1;
                                                            }
                                                        }
                                                    }

                                                    else {
                                                        if (x[12] <= 7.71527361869812) {
                                                            if (x[11] <= 1.7278187274932861) {
                                                                return 0;
                                                            }

                                                            else {
                                                                return 1;
                                                            }
                                                        }

                                                        else {
                                                            if (x[10] <= 13.549944877624512) {
                                                                return 2;
                                                            }

                                                            else {
                                                                return 1;
                                                            }
                                                        }
                                                    }
                                                }

                                                else {
                                                    if (x[8] <= 289.41175842285156) {
                                                        if (x[19] <= 162.48057556152344) {
                                                            if (x[8] <= 40.23528861999512) {
                                                                return 1;
                                                            }

                                                            else {
                                                                return 2;
                                                            }
                                                        }

                                                        else {
                                                            if (x[10] <= 9.986839771270752) {
                                                                return 1;
                                                            }

                                                            else {
                                                                return 0;
                                                            }
                                                        }
                                                    }

                                                    else {
                                                        return 0;
                                                    }
                                                }
                                            }
                                        }
                                    }

                                    else {
                                        if (x[1] <= 22.773847579956055) {
                                            if (x[8] <= 413.6470642089844) {
                                                if (x[1] <= 13.38402795791626) {
                                                    if (x[12] <= 4.464391469955444) {
                                                        if (x[9] <= 7.5616254806518555) {
                                                            if (x[16] <= 456.8627471923828) {
                                                                return 1;
                                                            }

                                                            else {
                                                                return 1;
                                                            }
                                                        }

                                                        else {
                                                            if (x[16] <= 809.8039245605469) {
                                                                return 1;
                                                            }

                                                            else {
                                                                return 1;
                                                            }
                                                        }
                                                    }

                                                    else {
                                                        if (x[10] <= 13.480342864990234) {
                                                            if (x[18] <= 249.51778411865234) {
                                                                return 1;
                                                            }

                                                            else {
                                                                return 1;
                                                            }
                                                        }

                                                        else {
                                                            if (x[8] <= 16.235291481018066) {
                                                                return 2;
                                                            }

                                                            else {
                                                                return 1;
                                                            }
                                                        }
                                                    }
                                                }

                                                else {
                                                    if (x[16] <= 801.9607849121094) {
                                                        if (x[9] <= 8.419072151184082) {
                                                            if (x[18] <= 30.52128791809082) {
                                                                return 1;
                                                            }

                                                            else {
                                                                return 1;
                                                            }
                                                        }

                                                        else {
                                                            if (x[17] <= 367.7110900878906) {
                                                                return 2;
                                                            }

                                                            else {
                                                                return 1;
                                                            }
                                                        }
                                                    }

                                                    else {
                                                        if (x[0] <= 153.1764678955078) {
                                                            if (x[16] <= 1782.3529663085938) {
                                                                return 1;
                                                            }

                                                            else {
                                                                return 1;
                                                            }
                                                        }

                                                        else {
                                                            if (x[0] <= 165.88235473632812) {
                                                                return 1;
                                                            }

                                                            else {
                                                                return 1;
                                                            }
                                                        }
                                                    }
                                                }
                                            }

                                            else {
                                                if (x[10] <= 11.442775249481201) {
                                                    return 0;
                                                }

                                                else {
                                                    return 0;
                                                }
                                            }
                                        }

                                        else {
                                            if (x[16] <= 974.5097961425781) {
                                                if (x[8] <= 288.0) {
                                                    if (x[18] <= 188.14351654052734) {
                                                        if (x[9] <= 4.7368364334106445) {
                                                            if (x[8] <= 66.35293960571289) {
                                                                return 1;
                                                            }

                                                            else {
                                                                return 2;
                                                            }
                                                        }

                                                        else {
                                                            if (x[2] <= 24.457372665405273) {
                                                                return 2;
                                                            }

                                                            else {
                                                                return 2;
                                                            }
                                                        }
                                                    }

                                                    else {
                                                        if (x[11] <= 3.3309237957000732) {
                                                            return 1;
                                                        }

                                                        else {
                                                            if (x[7] <= 7.872089862823486) {
                                                                return 1;
                                                            }

                                                            else {
                                                                return 2;
                                                            }
                                                        }
                                                    }
                                                }

                                                else {
                                                    if (x[8] <= 373.4117736816406) {
                                                        if (x[5] <= 7.1629638671875) {
                                                            if (x[14] <= 1.3583356738090515) {
                                                                return 2;
                                                            }

                                                            else {
                                                                return 1;
                                                            }
                                                        }

                                                        else {
                                                            return 0;
                                                        }
                                                    }

                                                    else {
                                                        return 0;
                                                    }
                                                }
                                            }

                                            else {
                                                if (x[8] <= 259.05882263183594) {
                                                    if (x[6] <= 9.589690685272217) {
                                                        if (x[10] <= 8.34859848022461) {
                                                            if (x[9] <= 13.3498215675354) {
                                                                return 1;
                                                            }

                                                            else {
                                                                return 1;
                                                            }
                                                        }

                                                        else {
                                                            if (x[17] <= 331.887939453125) {
                                                                return 0;
                                                            }

                                                            else {
                                                                return 1;
                                                            }
                                                        }
                                                    }

                                                    else {
                                                        if (x[17] <= 434.3155059814453) {
                                                            if (x[4] <= 10.504460334777832) {
                                                                return 1;
                                                            }

                                                            else {
                                                                return 0;
                                                            }
                                                        }

                                                        else {
                                                            if (x[2] <= 34.78272247314453) {
                                                                return 1;
                                                            }

                                                            else {
                                                                return 2;
                                                            }
                                                        }
                                                    }
                                                }

                                                else {
                                                    if (x[18] <= 498.5823669433594) {
                                                        if (x[8] <= 458.1176452636719) {
                                                            if (x[3] <= 17.715643882751465) {
                                                                return 2;
                                                            }

                                                            else {
                                                                return 0;
                                                            }
                                                        }

                                                        else {
                                                            return 0;
                                                        }
                                                    }

                                                    else {
                                                        if (x[17] <= 964.529541015625) {
                                                            return 1;
                                                        }

                                                        else {
                                                            return 0;
                                                        }
                                                    }
                                                }
                                            }
                                        }
                                    }
                                }

                                else {
                                    if (x[8] <= 292.94117736816406) {
                                        if (x[16] <= 794.1176452636719) {
                                            if (x[9] <= 100.77532196044922) {
                                                if (x[1] <= 14.518593788146973) {
                                                    if (x[17] <= 356.8371887207031) {
                                                        if (x[2] <= 3.6891199350357056) {
                                                            if (x[1] <= 7.328901290893555) {
                                                                return 2;
                                                            }

                                                            else {
                                                                return 2;
                                                            }
                                                        }

                                                        else {
                                                            if (x[16] <= 445.09803771972656) {
                                                                return 2;
                                                            }

                                                            else {
                                                                return 2;
                                                            }
                                                        }
                                                    }

                                                    else {
                                                        if (x[9] <= 28.112979888916016) {
                                                            if (x[6] <= 3.397879958152771) {
                                                                return 1;
                                                            }

                                                            else {
                                                                return 1;
                                                            }
                                                        }

                                                        else {
                                                            if (x[17] <= 600.4770812988281) {
                                                                return 2;
                                                            }

                                                            else {
                                                                return 1;
                                                            }
                                                        }
                                                    }
                                                }

                                                else {
                                                    if (x[5] <= 10.526485919952393) {
                                                        if (x[18] <= 174.01245880126953) {
                                                            if (x[16] <= 394.1176452636719) {
                                                                return 2;
                                                            }

                                                            else {
                                                                return 2;
                                                            }
                                                        }

                                                        else {
                                                            if (x[17] <= 480.27674865722656) {
                                                                return 2;
                                                            }

                                                            else {
                                                                return 1;
                                                            }
                                                        }
                                                    }

                                                    else {
                                                        if (x[2] <= 43.08154296875) {
                                                            if (x[18] <= 153.83850860595703) {
                                                                return 2;
                                                            }

                                                            else {
                                                                return 0;
                                                            }
                                                        }

                                                        else {
                                                            if (x[3] <= 25.105599403381348) {
                                                                return 2;
                                                            }

                                                            else {
                                                                return 0;
                                                            }
                                                        }
                                                    }
                                                }
                                            }

                                            else {
                                                if (x[11] <= 39.46624755859375) {
                                                    if (x[1] <= 72.34126281738281) {
                                                        if (x[0] <= 186.35294342041016) {
                                                            if (x[18] <= 123.7197265625) {
                                                                return 0;
                                                            }

                                                            else {
                                                                return 2;
                                                            }
                                                        }

                                                        else {
                                                            if (x[16] <= 611.7647094726562) {
                                                                return 0;
                                                            }

                                                            else {
                                                                return 0;
                                                            }
                                                        }
                                                    }

                                                    else {
                                                        if (x[10] <= 69.56250762939453) {
                                                            return 0;
                                                        }

                                                        else {
                                                            return 0;
                                                        }
                                                    }
                                                }

                                                else {
                                                    if (x[12] <= 76.42327499389648) {
                                                        if (x[12] <= 11.905154705047607) {
                                                            if (x[0] <= 123.52941131591797) {
                                                                return 2;
                                                            }

                                                            else {
                                                                return 0;
                                                            }
                                                        }

                                                        else {
                                                            if (x[15] <= 21.077475547790527) {
                                                                return 0;
                                                            }

                                                            else {
                                                                return 0;
                                                            }
                                                        }
                                                    }

                                                    else {
                                                        if (x[9] <= 288.74169921875) {
                                                            if (x[12] <= 81.16901016235352) {
                                                                return 2;
                                                            }

                                                            else {
                                                                return 3;
                                                            }
                                                        }

                                                        else {
                                                            return 0;
                                                        }
                                                    }
                                                }
                                            }
                                        }

                                        else {
                                            if (x[9] <= 30.857783317565918) {
                                                if (x[1] <= 30.706295013427734) {
                                                    if (x[16] <= 1527.4509887695312) {
                                                        if (x[1] <= 12.123108863830566) {
                                                            if (x[0] <= 109.41176223754883) {
                                                                return 1;
                                                            }

                                                            else {
                                                                return 1;
                                                            }
                                                        }

                                                        else {
                                                            if (x[19] <= 68.7563591003418) {
                                                                return 2;
                                                            }

                                                            else {
                                                                return 1;
                                                            }
                                                        }
                                                    }

                                                    else {
                                                        if (x[16] <= 2025.4901733398438) {
                                                            if (x[9] <= 21.035243034362793) {
                                                                return 1;
                                                            }

                                                            else {
                                                                return 1;
                                                            }
                                                        }

                                                        else {
                                                            if (x[17] <= 242.3036117553711) {
                                                                return 1;
                                                            }

                                                            else {
                                                                return 1;
                                                            }
                                                        }
                                                    }
                                                }

                                                else {
                                                    if (x[16] <= 1754.9019775390625) {
                                                        if (x[6] <= 8.55489206314087) {
                                                            if (x[17] <= 205.50592803955078) {
                                                                return 0;
                                                            }

                                                            else {
                                                                return 2;
                                                            }
                                                        }

                                                        else {
                                                            if (x[17] <= 308.1693572998047) {
                                                                return 0;
                                                            }

                                                            else {
                                                                return 0;
                                                            }
                                                        }
                                                    }

                                                    else {
                                                        if (x[2] <= 29.74857807159424) {
                                                            if (x[17] <= 685.2255249023438) {
                                                                return 1;
                                                            }

                                                            else {
                                                                return 1;
                                                            }
                                                        }

                                                        else {
                                                            if (x[17] <= 910.8271789550781) {
                                                                return 0;
                                                            }

                                                            else {
                                                                return 2;
                                                            }
                                                        }
                                                    }
                                                }
                                            }

                                            else {
                                                if (x[11] <= 19.040669441223145) {
                                                    if (x[6] <= 9.693958282470703) {
                                                        if (x[16] <= 3033.333251953125) {
                                                            if (x[17] <= 162.39200592041016) {
                                                                return 0;
                                                            }

                                                            else {
                                                                return 2;
                                                            }
                                                        }

                                                        else {
                                                            if (x[0] <= 114.35294342041016) {
                                                                return 1;
                                                            }

                                                            else {
                                                                return 0;
                                                            }
                                                        }
                                                    }

                                                    else {
                                                        if (x[2] <= 44.66257667541504) {
                                                            if (x[22] <= 88.79788208007812) {
                                                                return 0;
                                                            }

                                                            else {
                                                                return 2;
                                                            }
                                                        }

                                                        else {
                                                            if (x[13] <= 15.481638431549072) {
                                                                return 0;
                                                            }

                                                            else {
                                                                return 0;
                                                            }
                                                        }
                                                    }
                                                }

                                                else {
                                                    if (x[1] <= 26.420127868652344) {
                                                        if (x[0] <= 80.4705924987793) {
                                                            if (x[12] <= 19.63351058959961) {
                                                                return 1;
                                                            }

                                                            else {
                                                                return 0;
                                                            }
                                                        }

                                                        else {
                                                            if (x[17] <= 477.0766296386719) {
                                                                return 0;
                                                            }

                                                            else {
                                                                return 2;
                                                            }
                                                        }
                                                    }

                                                    else {
                                                        if (x[16] <= 1103.9215698242188) {
                                                            if (x[2] <= 22.477426528930664) {
                                                                return 0;
                                                            }

                                                            else {
                                                                return 0;
                                                            }
                                                        }

                                                        else {
                                                            if (x[12] <= 20.987391471862793) {
                                                                return 0;
                                                            }

                                                            else {
                                                                return 0;
                                                            }
                                                        }
                                                    }
                                                }
                                            }
                                        }
                                    }

                                    else {
                                        if (x[8] <= 481.41175842285156) {
                                            if (x[6] <= 9.66962480545044) {
                                                if (x[14] <= 18.96150302886963) {
                                                    if (x[1] <= 12.818210124969482) {
                                                        if (x[9] <= 27.140862464904785) {
                                                            if (x[10] <= 11.304056167602539) {
                                                                return 1;
                                                            }

                                                            else {
                                                                return 0;
                                                            }
                                                        }

                                                        else {
                                                            if (x[18] <= 134.57209014892578) {
                                                                return 0;
                                                            }

                                                            else {
                                                                return 2;
                                                            }
                                                        }
                                                    }

                                                    else {
                                                        if (x[8] <= 356.47059631347656) {
                                                            if (x[0] <= 98.11764526367188) {
                                                                return 2;
                                                            }

                                                            else {
                                                                return 0;
                                                            }
                                                        }

                                                        else {
                                                            if (x[17] <= 269.2196350097656) {
                                                                return 0;
                                                            }

                                                            else {
                                                                return 2;
                                                            }
                                                        }
                                                    }
                                                }

                                                else {
                                                    if (x[12] <= 35.965370178222656) {
                                                        if (x[9] <= 147.71347045898438) {
                                                            if (x[15] <= 16.483027458190918) {
                                                                return 0;
                                                            }

                                                            else {
                                                                return 0;
                                                            }
                                                        }

                                                        else {
                                                            if (x[18] <= 99.71026611328125) {
                                                                return 0;
                                                            }

                                                            else {
                                                                return 2;
                                                            }
                                                        }
                                                    }

                                                    else {
                                                        return 0;
                                                    }
                                                }
                                            }

                                            else {
                                                if (x[4] <= 13.01582670211792) {
                                                    if (x[12] <= 31.15433979034424) {
                                                        if (x[17] <= 133.27215576171875) {
                                                            if (x[21] <= 49.93718147277832) {
                                                                return 0;
                                                            }

                                                            else {
                                                                return 0;
                                                            }
                                                        }

                                                        else {
                                                            if (x[21] <= 112.0125846862793) {
                                                                return 2;
                                                            }

                                                            else {
                                                                return 0;
                                                            }
                                                        }
                                                    }

                                                    else {
                                                        return 0;
                                                    }
                                                }

                                                else {
                                                    if (x[3] <= 21.346108436584473) {
                                                        if (x[4] <= 19.789113998413086) {
                                                            if (x[17] <= 204.57408905029297) {
                                                                return 0;
                                                            }

                                                            else {
                                                                return 0;
                                                            }
                                                        }

                                                        else {
                                                            if (x[0] <= 90.35293579101562) {
                                                                return 0;
                                                            }

                                                            else {
                                                                return 2;
                                                            }
                                                        }
                                                    }

                                                    else {
                                                        if (x[5] <= 16.789090156555176) {
                                                            if (x[22] <= 72.75972366333008) {
                                                                return 0;
                                                            }

                                                            else {
                                                                return 0;
                                                            }
                                                        }

                                                        else {
                                                            if (x[19] <= 25.168166160583496) {
                                                                return 0;
                                                            }

                                                            else {
                                                                return 0;
                                                            }
                                                        }
                                                    }
                                                }
                                            }
                                        }

                                        else {
                                            if (x[8] <= 603.5294189453125) {
                                                if (x[17] <= 546.9168701171875) {
                                                    if (x[17] <= 12.013404369354248) {
                                                        if (x[9] <= 25.474773406982422) {
                                                            return 1;
                                                        }

                                                        else {
                                                            return 0;
                                                        }
                                                    }

                                                    else {
                                                        if (x[7] <= 8.546239376068115) {
                                                            if (x[0] <= 134.1176528930664) {
                                                                return 0;
                                                            }

                                                            else {
                                                                return 0;
                                                            }
                                                        }

                                                        else {
                                                            if (x[9] <= 282.3463592529297) {
                                                                return 0;
                                                            }

                                                            else {
                                                                return 0;
                                                            }
                                                        }
                                                    }
                                                }

                                                else {
                                                    if (x[2] <= 25.865665435791016) {
                                                        if (x[16] <= 813.7254943847656) {
                                                            if (x[14] <= 14.633842468261719) {
                                                                return 2;
                                                            }

                                                            else {
                                                                return 0;
                                                            }
                                                        }

                                                        else {
                                                            return 0;
                                                        }
                                                    }

                                                    else {
                                                        return 0;
                                                    }
                                                }
                                            }

                                            else {
                                                if (x[0] <= 235.76470184326172) {
                                                    return 0;
                                                }

                                                else {
                                                    if (x[20] <= 32.47067642211914) {
                                                        return 0;
                                                    }

                                                    else {
                                                        return 0;
                                                    }
                                                }
                                            }
                                        }
                                    }
                                }
                            }

                            else {
                                if (x[0] <= 332.4705810546875) {
                                    if (x[9] <= 41.189300537109375) {
                                        if (x[8] <= 242.82352447509766) {
                                            if (x[17] <= 204.35154724121094) {
                                                if (x[16] <= 570.5882263183594) {
                                                    if (x[20] <= 35.833194732666016) {
                                                        if (x[19] <= 32.18025588989258) {
                                                            return 2;
                                                        }

                                                        else {
                                                            if (x[3] <= 2.687222123146057) {
                                                                return 0;
                                                            }

                                                            else {
                                                                return 2;
                                                            }
                                                        }
                                                    }

                                                    else {
                                                        if (x[6] <= 11.19628620147705) {
                                                            if (x[1] <= 16.493911743164062) {
                                                                return 0;
                                                            }

                                                            else {
                                                                return 2;
                                                            }
                                                        }

                                                        else {
                                                            if (x[5] <= 48.02161979675293) {
                                                                return 0;
                                                            }

                                                            else {
                                                                return 0;
                                                            }
                                                        }
                                                    }
                                                }

                                                else {
                                                    if (x[8] <= 156.0) {
                                                        if (x[1] <= 41.2777214050293) {
                                                            return 0;
                                                        }

                                                        else {
                                                            if (x[1] <= 85.84882926940918) {
                                                                return 2;
                                                            }

                                                            else {
                                                                return 0;
                                                            }
